<?xml version="1.0"?>
<opencv_storage>
<cascade>
  <stageType>BOOST</stageType>
  <featureType>HAAR</featureType>
  <height>24</height>
  <width>24</width>
  <stageParams>
    <boostType>GAB</boostType>
    <minHitRate>9.9500000476837158e-01</minHitRate>
    <maxFalseAlarm>5.0000000000000000e-01</maxFalseAlarm>
    <weightTrimRate>9.4999998807907104e-01</weightTrimRate>
    <maxDepth>1</maxDepth>
    <maxWeakCount>100</maxWeakCount></stageParams>
  <featureParams>
    <maxCatCount>0</maxCatCount>
    <featSize>1</featSize>
    <mode>BASIC</mode></featureParams>
  <stageNum>15</stageNum>
  <stages>
    <!-- stage 0 -->
    <_>
      <maxWeakCount>7</maxWeakCount>
      <stageThreshold>-1.2072699069976807e+00</stageThreshold>
      <weakClassifiers>
        <_>
          <internalNodes>
            0 -1 147 -4.4814747525379062e-04</internalNodes>
          <leafValues>
            6.4516127109527588e-02 -7.7923494577407837e-01</leafValues></_>
        <_>
          <internalNodes>
            0 -1 185 -1.2017321751045529e-05</internalNodes>
          <leafValues>
            2.3873592913150787e-01 -5.7618629932403564e-01</leafValues></_>
        <_>
          <internalNodes>
            0 -1 92 -5.0784409977495670e-03</internalNodes>
          <leafValues>
            6.7481374740600586e-01 -2.6804444193840027e-01</leafValues></_>
        <_>
          <internalNodes>
            0 -1 82 2.4135929998010397e-03</internalNodes>
          <leafValues>
            -2.8867053985595703e-01 6.4218515157699585e-01</leafValues></_>
        <_>
          <internalNodes>
            0 -1 160 -2.5671208277344704e-04</internalNodes>
          <leafValues>
            5.7398825883865356e-01 -2.5644609332084656e-01</leafValues></_>
        <_>
          <internalNodes>
            0 -1 44 -6.8990878760814667e-02</internalNodes>
          <leafValues>
            4.4372224807739258e-01 -3.3121266961097717e-01</leafValues></_>
        <_>
          <internalNodes>
            0 -1 167 -4.5196519931778312e-04</internalNodes>
          <leafValues>
            5.3710979223251343e-01 -2.9733207821846008e-01</leafValues></_></weakClassifiers></_>
    <!-- stage 1 -->
    <_>
      <maxWeakCount>9</maxWeakCount>
      <stageThreshold>-1.6711592674255371e+00</stageThreshold>
      <weakClassifiers>
        <_>
          <internalNodes>
            0 -1 13 3.9210774004459381e-02</internalNodes>
          <leafValues>
            -7.1679687500000000e-01 4.2857143282890320e-01</leafValues></_>
        <_>
          <internalNodes>
            0 -1 198 -1.5597639503539540e-05</internalNodes>
          <leafValues>
            3.2475778460502625e-01 -4.6982842683792114e-01</leafValues></_>
        <_>
          <internalNodes>
            0 -1 91 1.5554041601717472e-03</internalNodes>
          <leafValues>
            -3.3460152149200439e-01 4.1992995142936707e-01</leafValues></_>
        <_>
          <internalNodes>
            0 -1 153 -1.8959719454869628e-05</internalNodes>
          <leafValues>
            4.3089374899864197e-01 -3.0025881528854370e-01</leafValues></_>
        <_>
          <internalNodes>
            0 -1 232 -1.6530213179066777e-04</internalNodes>
          <leafValues>
            3.9027282595634460e-01 -3.4494155645370483e-01</leafValues></_>
        <_>
          <internalNodes>
            0 -1 102 -1.2017321751045529e-05</internalNodes>
          <leafValues>
            4.1580477356910706e-01 -3.0410829186439514e-01</leafValues></_>
        <_>
          <internalNodes>
            0 -1 187 1.5716330381110311e-05</internalNodes>
          <leafValues>
            -2.5033110380172729e-01 4.9519383907318115e-01</leafValues></_>
        <_>
          <internalNodes>
            0 -1 106 -7.5764721259474754e-03</internalNodes>
          <leafValues>
            5.3193086385726929e-01 -2.5091204047203064e-01</leafValues></_>
        <_>
          <internalNodes>
            0 -1 179 -2.1668437868356705e-02</internalNodes>
          <leafValues>
            5.6559777259826660e-01 -2.0213660597801208e-01</leafValues></_></weakClassifiers></_>
    <!-- stage 2 -->
    <_>
      <maxWeakCount>15</maxWeakCount>
      <stageThreshold>-1.4679627418518066e+00</stageThreshold>
      <weakClassifiers>
        <_>
          <internalNodes>
            0 -1 61 2.0922946929931641e-01</internalNodes>
          <leafValues>
            -7.0306515693664551e-01 5.7894736528396606e-01</leafValues></_>
        <_>
          <internalNodes>
            0 -1 6 5.2512340247631073e-02</internalNodes>
          <leafValues>
            -3.5183879733085632e-01 3.1032767891883850e-01</leafValues></_>
        <_>
          <internalNodes>
            0 -1 163 -6.5696616657078266e-03</internalNodes>
          <leafValues>
            -6.6015642881393433e-01 1.0943099856376648e-01</leafValues></_>
        <_>
          <internalNodes>
            0 -1 23 -1.4823502860963345e-02</internalNodes>
          <leafValues>
            -7.2206640243530273e-01 1.6949500143527985e-01</leafValues></_>
        <_>
          <internalNodes>
            0 -1 184 -7.8348570968955755e-04</internalNodes>
          <leafValues>
            2.8740662336349487e-01 -2.7970790863037109e-01</leafValues></_>
        <_>
          <internalNodes>
            0 -1 40 -4.8816069029271603e-03</internalNodes>
          <leafValues>
            -9.0843480825424194e-01 1.1162651330232620e-01</leafValues></_>
        <_>
          <internalNodes>
            0 -1 55 -3.0891001224517822e-02</internalNodes>
          <leafValues>
            3.5998997092247009e-01 -2.1911667287349701e-01</leafValues></_>
        <_>
          <internalNodes>
            0 -1 126 8.0529123544692993e-02</internalNodes>
          <leafValues>
            -2.1084880828857422e-01 4.4211575388908386e-01</leafValues></_>
        <_>
          <internalNodes>
            0 -1 150 1.2876202818006277e-03</internalNodes>
          <leafValues>
            1.3428759574890137e-01 -5.9178990125656128e-01</leafValues></_>
        <_>
          <internalNodes>
            0 -1 83 -3.8120620884001255e-03</internalNodes>
          <leafValues>
            4.3993520736694336e-01 -2.0019491016864777e-01</leafValues></_>
        <_>
          <internalNodes>
            0 -1 180 7.8847892582416534e-03</internalNodes>
          <leafValues>
            -1.7184953391551971e-01 4.9505722522735596e-01</leafValues></_>
        <_>
          <internalNodes>
            0 -1 84 1.3082865625619888e-03</internalNodes>
          <leafValues>
            -1.3978445529937744e-01 5.6541323661804199e-01</leafValues></_>
        <_>
          <internalNodes>
            0 -1 21 -1.0459260083734989e-03</internalNodes>
          <leafValues>
            -6.1329704523086548e-01 1.5773931145668030e-01</leafValues></_>
        <_>
          <internalNodes>
            0 -1 190 -3.5150637850165367e-03</internalNodes>
          <leafValues>
            4.5253357291221619e-01 -1.8192924559116364e-01</leafValues></_>
        <_>
          <internalNodes>
            0 -1 12 9.8824675660580397e-04</internalNodes>
          <leafValues>
            -2.6519760489463806e-01 3.0779328942298889e-01</leafValues></_></weakClassifiers></_>
    <!-- stage 3 -->
    <_>
      <maxWeakCount>9</maxWeakCount>
      <stageThreshold>-1.4779710769653320e+00</stageThreshold>
      <weakClassifiers>
        <_>
          <internalNodes>
            0 -1 67 1.5056288242340088e-01</internalNodes>
          <leafValues>
            -7.2047245502471924e-01 3.6470589041709900e-01</leafValues></_>
        <_>
          <internalNodes>
            0 -1 197 -2.8581179212778807e-03</internalNodes>
          <leafValues>
            -8.5584604740142822e-01 -1.4695750549435616e-02</leafValues></_>
        <_>
          <internalNodes>
            0 -1 214 1.9687091116793454e-04</internalNodes>
          <leafValues>
            1.9085443019866943e-01 -5.4284638166427612e-01</leafValues></_>
        <_>
          <internalNodes>
            0 -1 4 -1.8984088674187660e-03</internalNodes>
          <leafValues>
            -7.5980472564697266e-01 1.4442931115627289e-01</leafValues></_>
        <_>
          <internalNodes>
            0 -1 30 -3.6475914530456066e-03</internalNodes>
          <leafValues>
            -8.5849273204803467e-01 1.1742578446865082e-01</leafValues></_>
        <_>
          <internalNodes>
            0 -1 215 8.6436240235343575e-04</internalNodes>
          <leafValues>
            1.3644668459892273e-01 -5.5186671018600464e-01</leafValues></_>
        <_>
          <internalNodes>
            0 -1 77 5.3507869597524405e-04</internalNodes>
          <leafValues>
            -3.0933025479316711e-01 2.8676751255989075e-01</leafValues></_>
        <_>
          <internalNodes>
            0 -1 115 1.0331822559237480e-03</internalNodes>
          <leafValues>
            9.5454022288322449e-02 -8.3496201038360596e-01</leafValues></_>
        <_>
          <internalNodes>
            0 -1 159 -1.3852722942829132e-02</internalNodes>
          <leafValues>
            4.4345852732658386e-01 -1.8766683340072632e-01</leafValues></_></weakClassifiers></_>
    <!-- stage 4 -->
    <_>
      <maxWeakCount>12</maxWeakCount>
      <stageThreshold>-1.4397840499877930e+00</stageThreshold>
      <weakClassifiers>
        <_>
          <internalNodes>
            0 -1 56 2.6409876346588135e-01</internalNodes>
          <leafValues>
            -7.1692305803298950e-01 -1.5873016789555550e-02</leafValues></_>
        <_>
          <internalNodes>
            0 -1 5 -1.3777699787169695e-03</internalNodes>
          <leafValues>
            -6.9332963228225708e-01 -3.6344092339277267e-02</leafValues></_>
        <_>
          <internalNodes>
            0 -1 234 8.5157505236566067e-04</internalNodes>
          <leafValues>
            6.0785397887229919e-02 -8.7670069932937622e-01</leafValues></_>
        <_>
          <internalNodes>
            0 -1 177 5.2316403016448021e-03</internalNodes>
          <leafValues>
            9.0750187635421753e-02 -8.1170922517776489e-01</leafValues></_>
        <_>
          <internalNodes>
            0 -1 135 5.8836033567786217e-03</internalNodes>
          <leafValues>
            -1.5774229168891907e-01 4.1630026698112488e-01</leafValues></_>
        <_>
          <internalNodes>
            0 -1 107 -3.2317318022251129e-02</internalNodes>
          <leafValues>
            4.3308472633361816e-01 -1.5263478457927704e-01</leafValues></_>
        <_>
          <internalNodes>
            0 -1 173 -4.1830483824014664e-03</internalNodes>
          <leafValues>
            -6.8295788764953613e-01 1.2223946303129196e-01</leafValues></_>
        <_>
          <internalNodes>
            0 -1 89 2.9229267966002226e-03</internalNodes>
          <leafValues>
            -2.6166969537734985e-01 2.7570390701293945e-01</leafValues></_>
        <_>
          <internalNodes>
            0 -1 33 1.5784475952386856e-02</internalNodes>
          <leafValues>
            -1.8219560384750366e-01 3.8358595967292786e-01</leafValues></_>
        <_>
          <internalNodes>
            0 -1 120 -2.1813721396028996e-03</internalNodes>
          <leafValues>
            -8.1724852323532104e-01 8.1560291349887848e-02</leafValues></_>
        <_>
          <internalNodes>
            0 -1 212 1.0769574437290430e-03</internalNodes>
          <leafValues>
            1.3313238322734833e-01 -4.1522344946861267e-01</leafValues></_>
        <_>
          <internalNodes>
            0 -1 42 1.0259799659252167e-02</internalNodes>
          <leafValues>
            8.3549089729785919e-02 -8.2685381174087524e-01</leafValues></_></weakClassifiers></_>
    <!-- stage 5 -->
    <_>
      <maxWeakCount>20</maxWeakCount>
      <stageThreshold>-1.6046786308288574e+00</stageThreshold>
      <weakClassifiers>
        <_>
          <internalNodes>
            0 -1 125 3.1898242235183716e-01</internalNodes>
          <leafValues>
            -6.6358596086502075e-01 8.9473682641983032e-01</leafValues></_>
        <_>
          <internalNodes>
            0 -1 195 -4.4834287837147713e-03</internalNodes>
          <leafValues>
            2.5531485676765442e-01 -2.9249596595764160e-01</leafValues></_>
        <_>
          <internalNodes>
            0 -1 48 6.5438812598586082e-03</internalNodes>
          <leafValues>
            7.2019606828689575e-02 -8.6111670732498169e-01</leafValues></_>
        <_>
          <internalNodes>
            0 -1 69 -1.0467996820807457e-02</internalNodes>
          <leafValues>
            3.6676117777824402e-01 -1.6744764149188995e-01</leafValues></_>
        <_>
          <internalNodes>
            0 -1 101 -6.3654198311269283e-04</internalNodes>
          <leafValues>
            2.3678745329380035e-01 -2.6079651713371277e-01</leafValues></_>
        <_>
          <internalNodes>
            0 -1 72 -1.2389032542705536e-01</internalNodes>
          <leafValues>
            5.3131210803985596e-01 -1.2209641188383102e-01</leafValues></_>
        <_>
          <internalNodes>
            0 -1 199 -2.7501899749040604e-03</internalNodes>
          <leafValues>
            3.1185972690582275e-01 -2.0943492650985718e-01</leafValues></_>
        <_>
          <internalNodes>
            0 -1 166 1.8302495591342449e-03</internalNodes>
          <leafValues>
            -1.5704284608364105e-01 4.2450031638145447e-01</leafValues></_>
        <_>
          <internalNodes>
            0 -1 26 -3.9060798007994890e-04</internalNodes>
          <leafValues>
            -5.6320583820343018e-01 1.5161174535751343e-01</leafValues></_>
        <_>
          <internalNodes>
            0 -1 151 -7.1946618845686316e-04</internalNodes>
          <leafValues>
            -3.8723728060722351e-01 1.7797359824180603e-01</leafValues></_>
        <_>
          <internalNodes>
            0 -1 152 1.3948716223239899e-02</internalNodes>
          <leafValues>
            -1.7992903292179108e-01 3.6491787433624268e-01</leafValues></_>
        <_>
          <internalNodes>
            0 -1 149 -1.5818113461136818e-03</internalNodes>
          <leafValues>
            3.9571043848991394e-01 -1.6092447936534882e-01</leafValues></_>
        <_>
          <internalNodes>
            0 -1 128 -1.0867998935282230e-02</internalNodes>
          <leafValues>
            4.0655818581581116e-01 -1.6329985857009888e-01</leafValues></_>
        <_>
          <internalNodes>
            0 -1 222 6.8841630127280951e-04</internalNodes>
          <leafValues>
            1.3212355971336365e-01 -5.2241325378417969e-01</leafValues></_>
        <_>
          <internalNodes>
            0 -1 117 -4.7719955909997225e-04</internalNodes>
          <leafValues>
            2.6657986640930176e-01 -2.2945640981197357e-01</leafValues></_>
        <_>
          <internalNodes>
            0 -1 131 -2.2778709535486996e-04</internalNodes>
          <leafValues>
            2.6357719302177429e-01 -2.6256939768791199e-01</leafValues></_>
        <_>
          <internalNodes>
            0 -1 9 7.9182107001543045e-03</internalNodes>
          <leafValues>
            -3.3606112003326416e-01 2.2518724203109741e-01</leafValues></_>
        <_>
          <internalNodes>
            0 -1 113 -9.3548856675624847e-03</internalNodes>
          <leafValues>
            3.9986217021942139e-01 -1.7845118045806885e-01</leafValues></_>
        <_>
          <internalNodes>
            0 -1 62 -8.5432445630431175e-03</internalNodes>
          <leafValues>
            3.2667669653892517e-01 -2.0914886891841888e-01</leafValues></_>
        <_>
          <internalNodes>
            0 -1 96 -2.8839822858572006e-02</internalNodes>
          <leafValues>
            3.8079434633255005e-01 -1.6999919712543488e-01</leafValues></_></weakClassifiers></_>
    <!-- stage 6 -->
    <_>
      <maxWeakCount>16</maxWeakCount>
      <stageThreshold>-1.2410767078399658e+00</stageThreshold>
      <weakClassifiers>
        <_>
          <internalNodes>
            0 -1 111 1.1311670392751694e-01</internalNodes>
          <leafValues>
            -6.8523949384689331e-01 6.7337292891924360e-17</leafValues></_>
        <_>
          <internalNodes>
            0 -1 43 -1.0509645566344261e-02</internalNodes>
          <leafValues>
            -7.9663074016571045e-01 -6.0253769159317017e-02</leafValues></_>
        <_>
          <internalNodes>
            0 -1 68 3.9021233096718788e-03</internalNodes>
          <leafValues>
            -9.2033430933952332e-02 5.4392856359481812e-01</leafValues></_>
        <_>
          <internalNodes>
            0 -1 145 2.9560346156358719e-02</internalNodes>
          <leafValues>
            -8.9538179337978363e-02 5.6825917959213257e-01</leafValues></_>
        <_>
          <internalNodes>
            0 -1 172 8.1677356502041221e-04</internalNodes>
          <leafValues>
            7.6838351786136627e-02 -7.6267790794372559e-01</leafValues></_>
        <_>
          <internalNodes>
            0 -1 171 -4.1679191053844988e-04</internalNodes>
          <leafValues>
            -4.6793133020401001e-01 9.5924355089664459e-02</leafValues></_>
        <_>
          <internalNodes>
            0 -1 231 -1.6347980126738548e-03</internalNodes>
          <leafValues>
            2.5271522998809814e-01 -2.1903482079505920e-01</leafValues></_>
        <_>
          <internalNodes>
            0 -1 130 -7.1352772414684296e-02</internalNodes>
          <leafValues>
            3.7729480862617493e-01 -1.5223447978496552e-01</leafValues></_>
        <_>
          <internalNodes>
            0 -1 216 -1.9409592496231198e-03</internalNodes>
          <leafValues>
            3.6554414033889771e-01 -1.3354717195034027e-01</leafValues></_>
        <_>
          <internalNodes>
            0 -1 223 1.4543000725097954e-04</internalNodes>
          <leafValues>
            1.9966033101081848e-01 -2.6893079280853271e-01</leafValues></_>
        <_>
          <internalNodes>
            0 -1 157 -1.0647884337231517e-03</internalNodes>
          <leafValues>
            2.3893311619758606e-01 -2.0810104906558990e-01</leafValues></_>
        <_>
          <internalNodes>
            0 -1 8 5.2703060209751129e-03</internalNodes>
          <leafValues>
            -1.6905939579010010e-01 2.9823577404022217e-01</leafValues></_>
        <_>
          <internalNodes>
            0 -1 138 1.7938525415956974e-03</internalNodes>
          <leafValues>
            -2.0240592956542969e-01 3.0454027652740479e-01</leafValues></_>
        <_>
          <internalNodes>
            0 -1 146 -1.2325714342296124e-03</internalNodes>
          <leafValues>
            2.8161960840225220e-01 -2.0671144127845764e-01</leafValues></_>
        <_>
          <internalNodes>
            0 -1 213 -2.9822118813171983e-04</internalNodes>
          <leafValues>
            -3.3275094628334045e-01 1.6981045901775360e-01</leafValues></_>
        <_>
          <internalNodes>
            0 -1 132 1.6769380308687687e-03</internalNodes>
          <leafValues>
            6.3129529356956482e-02 -8.4269356727600098e-01</leafValues></_></weakClassifiers></_>
    <!-- stage 7 -->
    <_>
      <maxWeakCount>15</maxWeakCount>
      <stageThreshold>-1.2083084583282471e+00</stageThreshold>
      <weakClassifiers>
        <_>
          <internalNodes>
            0 -1 59 2.2003965079784393e-01</internalNodes>
          <leafValues>
            -6.6048234701156616e-01 4.7826087474822998e-01</leafValues></_>
        <_>
          <internalNodes>
            0 -1 207 -7.1164977271109819e-04</internalNodes>
          <leafValues>
            2.2293055057525635e-01 -2.7323964238166809e-01</leafValues></_>
        <_>
          <internalNodes>
            0 -1 158 1.3063228689134121e-03</internalNodes>
          <leafValues>
            -1.9938197731971741e-01 2.8697228431701660e-01</leafValues></_>
        <_>
          <internalNodes>
            0 -1 175 -1.1499207466840744e-02</internalNodes>
          <leafValues>
            3.8125580549240112e-01 -1.4635407924652100e-01</leafValues></_>
        <_>
          <internalNodes>
            0 -1 54 4.0754026174545288e-01</internalNodes>
          <leafValues>
            -1.1071021109819412e-01 4.7578585147857666e-01</leafValues></_>
        <_>
          <internalNodes>
            0 -1 144 -5.9487614780664444e-03</internalNodes>
          <leafValues>
            3.7696257233619690e-01 -1.3392759859561920e-01</leafValues></_>
        <_>
          <internalNodes>
            0 -1 51 2.1143346093595028e-03</internalNodes>
          <leafValues>
            -2.3285393416881561e-01 2.1965762972831726e-01</leafValues></_>
        <_>
          <internalNodes>
            0 -1 109 -9.4760383944958448e-04</internalNodes>
          <leafValues>
            2.5300040841102600e-01 -2.1528802812099457e-01</leafValues></_>
        <_>
          <internalNodes>
            0 -1 3 1.5261021908372641e-03</internalNodes>
          <leafValues>
            -2.7922087907791138e-01 1.7704449594020844e-01</leafValues></_>
        <_>
          <internalNodes>
            0 -1 60 2.3293789476156235e-02</internalNodes>
          <leafValues>
            -1.2530139088630676e-01 4.0286585688591003e-01</leafValues></_>
        <_>
          <internalNodes>
            0 -1 140 -3.4029642120003700e-03</internalNodes>
          <leafValues>
            3.7580314278602600e-01 -1.4104719460010529e-01</leafValues></_>
        <_>
          <internalNodes>
            0 -1 2 -9.9706798791885376e-02</internalNodes>
          <leafValues>
            8.0849522352218628e-01 -6.5290816128253937e-02</leafValues></_>
        <_>
          <internalNodes>
            0 -1 110 1.7157592810690403e-03</internalNodes>
          <leafValues>
            -1.7947016656398773e-01 2.8196936845779419e-01</leafValues></_>
        <_>
          <internalNodes>
            0 -1 75 -3.5414970479905605e-03</internalNodes>
          <leafValues>
            -6.4667987823486328e-01 8.3744294941425323e-02</leafValues></_>
        <_>
          <internalNodes>
            0 -1 122 1.3864795677363873e-02</internalNodes>
          <leafValues>
            4.4888332486152649e-02 -8.1282925605773926e-01</leafValues></_></weakClassifiers></_>
    <!-- stage 8 -->
    <_>
      <maxWeakCount>18</maxWeakCount>
      <stageThreshold>-1.4688270092010498e+00</stageThreshold>
      <weakClassifiers>
        <_>
          <internalNodes>
            0 -1 124 2.6967766880989075e-01</internalNodes>
          <leafValues>
            -6.5169566869735718e-01 1.</leafValues></_>
        <_>
          <internalNodes>
            0 -1 154 1.9266570452600718e-03</internalNodes>
          <leafValues>
            -2.5272950530052185e-01 2.5695315003395081e-01</leafValues></_>
        <_>
          <internalNodes>
            0 -1 224 9.2456102720461786e-05</internalNodes>
          <leafValues>
            1.6863407194614410e-01 -2.8687945008277893e-01</leafValues></_>
        <_>
          <internalNodes>
            0 -1 129 -5.9659201651811600e-03</internalNodes>
          <leafValues>
            -6.3426572084426880e-01 6.9615684449672699e-02</leafValues></_>
        <_>
          <internalNodes>
            0 -1 161 1.0655453661456704e-03</internalNodes>
          <leafValues>
            -7.5909666717052460e-02 4.9313598871231079e-01</leafValues></_>
        <_>
          <internalNodes>
            0 -1 11 4.5663965865969658e-03</internalNodes>
          <leafValues>
            -1.9111068546772003e-01 2.4883447587490082e-01</leafValues></_>
        <_>
          <internalNodes>
            0 -1 20 -1.2379133142530918e-02</internalNodes>
          <leafValues>
            -6.0397070646286011e-01 6.9557443261146545e-02</leafValues></_>
        <_>
          <internalNodes>
            0 -1 47 -1.7457620706409216e-03</internalNodes>
          <leafValues>
            4.5150667428970337e-01 -9.9862180650234222e-02</leafValues></_>
        <_>
          <internalNodes>
            0 -1 191 -8.1843854859471321e-03</internalNodes>
          <leafValues>
            2.5531974434852600e-01 -1.9951069355010986e-01</leafValues></_>
        <_>
          <internalNodes>
            0 -1 203 3.4649679437279701e-03</internalNodes>
          <leafValues>
            -1.0471227020025253e-01 4.6246120333671570e-01</leafValues></_>
        <_>
          <internalNodes>
            0 -1 165 -6.8660154938697815e-03</internalNodes>
          <leafValues>
            3.0732458829879761e-01 -1.7693486809730530e-01</leafValues></_>
        <_>
          <internalNodes>
            0 -1 25 1.7049415037035942e-02</internalNodes>
          <leafValues>
            -2.2430932521820068e-01 2.5915327668190002e-01</leafValues></_>
        <_>
          <internalNodes>
            0 -1 202 -1.4547346159815788e-02</internalNodes>
          <leafValues>
            -6.5348428487777710e-01 6.9432757794857025e-02</leafValues></_>
        <_>
          <internalNodes>
            0 -1 236 2.5201024254783988e-04</internalNodes>
          <leafValues>
            1.3718475401401520e-01 -3.5925939679145813e-01</leafValues></_>
        <_>
          <internalNodes>
            0 -1 193 -8.5306121036410332e-04</internalNodes>
          <leafValues>
            4.1955009102821350e-01 -1.2865965068340302e-01</leafValues></_>
        <_>
          <internalNodes>
            0 -1 221 5.1947870815638453e-05</internalNodes>
          <leafValues>
            1.8107928335666656e-01 -3.2666659355163574e-01</leafValues></_>
        <_>
          <internalNodes>
            0 -1 98 -1.1432261206209660e-02</internalNodes>
          <leafValues>
            3.0488213896751404e-01 -1.7074353992938995e-01</leafValues></_>
        <_>
          <internalNodes>
            0 -1 78 2.8606806881725788e-04</internalNodes>
          <leafValues>
            1.2547867000102997e-01 -4.2087036371231079e-01</leafValues></_></weakClassifiers></_>
    <!-- stage 9 -->
    <_>
      <maxWeakCount>17</maxWeakCount>
      <stageThreshold>-1.3364100456237793e+00</stageThreshold>
      <weakClassifiers>
        <_>
          <internalNodes>
            0 -1 170 -4.7660409472882748e-04</internalNodes>
          <leafValues>
            -4.4748857617378235e-01 -7.6168930530548096e-01</leafValues></_>
        <_>
          <internalNodes>
            0 -1 53 1.7296259105205536e-01</internalNodes>
          <leafValues>
            -2.9762277007102966e-01 1.7933955788612366e-01</leafValues></_>
        <_>
          <internalNodes>
            0 -1 36 -6.0202967142686248e-04</internalNodes>
          <leafValues>
            2.3609681427478790e-01 -2.0735706388950348e-01</leafValues></_>
        <_>
          <internalNodes>
            0 -1 100 6.0323588550090790e-03</internalNodes>
          <leafValues>
            -1.2212184816598892e-01 4.2195707559585571e-01</leafValues></_>
        <_>
          <internalNodes>
            0 -1 17 -5.0819898024201393e-03</internalNodes>
          <leafValues>
            -6.2992924451828003e-01 8.5662730038166046e-02</leafValues></_>
        <_>
          <internalNodes>
            0 -1 104 1.0307125921826810e-04</internalNodes>
          <leafValues>
            1.6785609722137451e-01 -3.0242043733596802e-01</leafValues></_>
        <_>
          <internalNodes>
            0 -1 45 -9.7431614995002747e-04</internalNodes>
          <leafValues>
            2.9379868507385254e-01 -1.5367563068866730e-01</leafValues></_>
        <_>
          <internalNodes>
            0 -1 46 -3.2943719998002052e-04</internalNodes>
          <leafValues>
            2.9618561267852783e-01 -1.7793174088001251e-01</leafValues></_>
        <_>
          <internalNodes>
            0 -1 235 -1.0836739093065262e-03</internalNodes>
          <leafValues>
            -7.4963045120239258e-01 7.0653319358825684e-02</leafValues></_>
        <_>
          <internalNodes>
            0 -1 181 4.6755209565162659e-02</internalNodes>
          <leafValues>
            -1.1145150661468506e-01 5.0479447841644287e-01</leafValues></_>
        <_>
          <internalNodes>
            0 -1 63 -1.2017321751045529e-05</internalNodes>
          <leafValues>
            2.2667448222637177e-01 -2.2461107373237610e-01</leafValues></_>
        <_>
          <internalNodes>
            0 -1 143 -1.1898784432560205e-03</internalNodes>
          <leafValues>
            2.4623216688632965e-01 -2.3865763843059540e-01</leafValues></_>
        <_>
          <internalNodes>
            0 -1 15 -4.5765995979309082e-02</internalNodes>
          <leafValues>
            -3.7316781282424927e-01 1.2993903458118439e-01</leafValues></_>
        <_>
          <internalNodes>
            0 -1 209 -5.3584203124046326e-04</internalNodes>
          <leafValues>
            -6.6516005992889404e-01 6.6968835890293121e-02</leafValues></_>
        <_>
          <internalNodes>
            0 -1 119 -2.9364028014242649e-03</internalNodes>
          <leafValues>
            4.3984588980674744e-01 -1.3417881727218628e-01</leafValues></_>
        <_>
          <internalNodes>
            0 -1 201 1.4890063321217895e-03</internalNodes>
          <leafValues>
            7.1729406714439392e-02 -7.5081717967987061e-01</leafValues></_>
        <_>
          <internalNodes>
            0 -1 226 -4.1777541628107429e-04</internalNodes>
          <leafValues>
            -4.1982302069664001e-01 1.0557080060243607e-01</leafValues></_></weakClassifiers></_>
    <!-- stage 10 -->
    <_>
      <maxWeakCount>19</maxWeakCount>
      <stageThreshold>-1.3344541788101196e+00</stageThreshold>
      <weakClassifiers>
        <_>
          <internalNodes>
            0 -1 90 -1.1320149898529053e-01</internalNodes>
          <leafValues>
            8.1081077456474304e-02 -6.6165411472320557e-01</leafValues></_>
        <_>
          <internalNodes>
            0 -1 228 -3.0045385938137770e-04</internalNodes>
          <leafValues>
            -5.6597751379013062e-01 -1.3974622823297977e-02</leafValues></_>
        <_>
          <internalNodes>
            0 -1 64 2.7060596039518714e-04</internalNodes>
          <leafValues>
            1.0874055325984955e-01 -4.1330340504646301e-01</leafValues></_>
        <_>
          <internalNodes>
            0 -1 227 8.5445164586417377e-05</internalNodes>
          <leafValues>
            1.5620435774326324e-01 -3.4062880277633667e-01</leafValues></_>
        <_>
          <internalNodes>
            0 -1 71 2.9715497512370348e-03</internalNodes>
          <leafValues>
            -2.0657323300838470e-01 2.5543016195297241e-01</leafValues></_>
        <_>
          <internalNodes>
            0 -1 74 -2.8754584491252899e-02</internalNodes>
          <leafValues>
            6.4124244451522827e-01 -5.7801637798547745e-02</leafValues></_>
        <_>
          <internalNodes>
            0 -1 211 -2.8984965756535530e-03</internalNodes>
          <leafValues>
            -8.0771589279174805e-01 6.2620453536510468e-02</leafValues></_>
        <_>
          <internalNodes>
            0 -1 39 -1.0598374530673027e-02</internalNodes>
          <leafValues>
            -7.1311587095260620e-01 5.7595212012529373e-02</leafValues></_>
        <_>
          <internalNodes>
            0 -1 112 -1.4355897437781096e-03</internalNodes>
          <leafValues>
            2.9628294706344604e-01 -1.6954945027828217e-01</leafValues></_>
        <_>
          <internalNodes>
            0 -1 121 -2.4863348808139563e-03</internalNodes>
          <leafValues>
            5.2061545848846436e-01 -9.1559670865535736e-02</leafValues></_>
        <_>
          <internalNodes>
            0 -1 141 -4.0632598102092743e-03</internalNodes>
          <leafValues>
            3.5203170776367188e-01 -1.2882080674171448e-01</leafValues></_>
        <_>
          <internalNodes>
            0 -1 225 -1.8270674627274275e-03</internalNodes>
          <leafValues>
            -7.7352219820022583e-01 5.7659253478050232e-02</leafValues></_>
        <_>
          <internalNodes>
            0 -1 50 -3.4397677518427372e-03</internalNodes>
          <leafValues>
            3.2775384187698364e-01 -1.4738878607749939e-01</leafValues></_>
        <_>
          <internalNodes>
            0 -1 86 -5.1314551383256912e-03</internalNodes>
          <leafValues>
            2.7189147472381592e-01 -1.8470282852649689e-01</leafValues></_>
        <_>
          <internalNodes>
            0 -1 142 2.9765645740553737e-04</internalNodes>
          <leafValues>
            -1.9724577665328979e-01 2.3988197743892670e-01</leafValues></_>
        <_>
          <internalNodes>
            0 -1 186 1.1140748392790556e-04</internalNodes>
          <leafValues>
            1.5620799362659454e-01 -3.7284153699874878e-01</leafValues></_>
        <_>
          <internalNodes>
            0 -1 7 -2.6441078633069992e-02</internalNodes>
          <leafValues>
            -1. 4.0990438312292099e-02</leafValues></_>
        <_>
          <internalNodes>
            0 -1 65 4.1891574859619141e-02</internalNodes>
          <leafValues>
            7.6398462057113647e-02 -5.2615821361541748e-01</leafValues></_>
        <_>
          <internalNodes>
            0 -1 34 2.3252395913004875e-03</internalNodes>
          <leafValues>
            -1.5136113762855530e-01 3.1707301735877991e-01</leafValues></_></weakClassifiers></_>
    <!-- stage 11 -->
    <_>
      <maxWeakCount>18</maxWeakCount>
      <stageThreshold>-1.2570035457611084e+00</stageThreshold>
      <weakClassifiers>
        <_>
          <internalNodes>
            0 -1 37 -6.2832655385136604e-03</internalNodes>
          <leafValues>
            1.6279070079326630e-01 -6.6918712854385376e-01</leafValues></_>
        <_>
          <internalNodes>
            0 -1 133 5.2286330610513687e-03</internalNodes>
          <leafValues>
            -2.5073215365409851e-01 2.8846883773803711e-01</leafValues></_>
        <_>
          <internalNodes>
            0 -1 169 -4.8017068766057491e-03</internalNodes>
          <leafValues>
            -6.2420588731765747e-01 8.1382788717746735e-02</leafValues></_>
        <_>
          <internalNodes>
            0 -1 168 2.1556562278419733e-03</internalNodes>
          <leafValues>
            -8.1471398472785950e-02 5.7478910684585571e-01</leafValues></_>
        <_>
          <internalNodes>
            0 -1 134 4.8819794319570065e-03</internalNodes>
          <leafValues>
            -1.7645576596260071e-01 3.2506966590881348e-01</leafValues></_>
        <_>
          <internalNodes>
            0 -1 136 -8.2136616110801697e-03</internalNodes>
          <leafValues>
            6.5579444169998169e-01 -9.8348826169967651e-02</leafValues></_>
        <_>
          <internalNodes>
            0 -1 19 -2.9692670796066523e-04</internalNodes>
          <leafValues>
            -3.6152720451354980e-01 1.4570081233978271e-01</leafValues></_>
        <_>
          <internalNodes>
            0 -1 205 1.0485027451068163e-03</internalNodes>
          <leafValues>
            -1.6421428322792053e-01 3.2543277740478516e-01</leafValues></_>
        <_>
          <internalNodes>
            0 -1 139 -1.2029760982841253e-03</internalNodes>
          <leafValues>
            4.5813980698585510e-01 -8.6848668754100800e-02</leafValues></_>
        <_>
          <internalNodes>
            0 -1 210 8.5481791757047176e-05</internalNodes>
          <leafValues>
            1.7138668894767761e-01 -2.9804912209510803e-01</leafValues></_>
        <_>
          <internalNodes>
            0 -1 87 -6.1007901094853878e-03</internalNodes>
          <leafValues>
            -9.1808080673217773e-01 5.4673761129379272e-02</leafValues></_>
        <_>
          <internalNodes>
            0 -1 97 -8.4080472588539124e-03</internalNodes>
          <leafValues>
            2.7966722846031189e-01 -1.6983038187026978e-01</leafValues></_>
        <_>
          <internalNodes>
            0 -1 58 -1.4578648842871189e-03</internalNodes>
          <leafValues>
            2.6524308323860168e-01 -1.7162825167179108e-01</leafValues></_>
        <_>
          <internalNodes>
            0 -1 57 -4.5949924970045686e-04</internalNodes>
          <leafValues>
            -2.4784633517265320e-01 1.8943747878074646e-01</leafValues></_>
        <_>
          <internalNodes>
            0 -1 162 -2.7985889464616776e-03</internalNodes>
          <leafValues>
            4.9681648612022400e-01 -9.8903872072696686e-02</leafValues></_>
        <_>
          <internalNodes>
            0 -1 229 -9.9888909608125687e-04</internalNodes>
          <leafValues>
            -8.5685223340988159e-01 6.4994975924491882e-02</leafValues></_>
        <_>
          <internalNodes>
            0 -1 35 6.9884965196251869e-03</internalNodes>
          <leafValues>
            -7.4353531002998352e-02 7.4878579378128052e-01</leafValues></_>
        <_>
          <internalNodes>
            0 -1 103 2.9125642031431198e-03</internalNodes>
          <leafValues>
            1.5213605761528015e-01 -3.1077408790588379e-01</leafValues></_></weakClassifiers></_>
    <!-- stage 12 -->
    <_>
      <maxWeakCount>21</maxWeakCount>
      <stageThreshold>-1.3979884386062622e+00</stageThreshold>
      <weakClassifiers>
        <_>
          <internalNodes>
            0 -1 10 3.3057816326618195e-02</internalNodes>
          <leafValues>
            -6.4986252784729004e-01 8.0000001192092896e-01</leafValues></_>
        <_>
          <internalNodes>
            0 -1 176 -1.9733996596187353e-03</internalNodes>
          <leafValues>
            2.1294392645359039e-01 -2.5102403759956360e-01</leafValues></_>
        <_>
          <internalNodes>
            0 -1 219 -9.4282889040187001e-04</internalNodes>
          <leafValues>
            3.0388116836547852e-01 -1.3544531166553497e-01</leafValues></_>
        <_>
          <internalNodes>
            0 -1 70 -1.7678311560302973e-03</internalNodes>
          <leafValues>
            2.2171531617641449e-01 -1.8509136140346527e-01</leafValues></_>
        <_>
          <internalNodes>
            0 -1 22 -2.0580901764333248e-03</internalNodes>
          <leafValues>
            -6.0010808706283569e-01 6.8740472197532654e-02</leafValues></_>
        <_>
          <internalNodes>
            0 -1 80 -3.9622485637664795e-03</internalNodes>
          <leafValues>
            3.9813289046287537e-01 -9.6009373664855957e-02</leafValues></_>
        <_>
          <internalNodes>
            0 -1 41 -1.0707590728998184e-02</internalNodes>
          <leafValues>
            3.0093285441398621e-01 -1.7518891394138336e-01</leafValues></_>
        <_>
          <internalNodes>
            0 -1 123 -2.4130586534738541e-03</internalNodes>
          <leafValues>
            -1. 3.9953492581844330e-02</leafValues></_>
        <_>
          <internalNodes>
            0 -1 178 2.7988266083411872e-05</internalNodes>
          <leafValues>
            -2.2054287791252136e-01 1.8400338292121887e-01</leafValues></_>
        <_>
          <internalNodes>
            0 -1 192 -1.6717132180929184e-02</internalNodes>
          <leafValues>
            3.1297889351844788e-01 -1.3497713208198547e-01</leafValues></_>
        <_>
          <internalNodes>
            0 -1 217 -2.5000136345624924e-02</internalNodes>
          <leafValues>
            -6.6897094249725342e-01 6.7577719688415527e-02</leafValues></_>
        <_>
          <internalNodes>
            0 -1 114 3.6693043075501919e-03</internalNodes>
          <leafValues>
            5.1141116768121719e-02 -7.1948182582855225e-01</leafValues></_>
        <_>
          <internalNodes>
            0 -1 32 4.3200189247727394e-03</internalNodes>
          <leafValues>
            7.0559494197368622e-02 -5.5913561582565308e-01</leafValues></_>
        <_>
          <internalNodes>
            0 -1 118 9.8846018314361572e-02</internalNodes>
          <leafValues>
            -9.0828530490398407e-02 5.2268356084823608e-01</leafValues></_>
        <_>
          <internalNodes>
            0 -1 206 -1.1267131194472313e-03</internalNodes>
          <leafValues>
            2.5548762083053589e-01 -1.7837592959403992e-01</leafValues></_>
        <_>
          <internalNodes>
            0 -1 137 -1.0755857219919562e-03</internalNodes>
          <leafValues>
            2.9481446743011475e-01 -1.5622718632221222e-01</leafValues></_>
        <_>
          <internalNodes>
            0 -1 66 -7.7094561420381069e-03</internalNodes>
          <leafValues>
            4.0006434917449951e-01 -1.3191950321197510e-01</leafValues></_>
        <_>
          <internalNodes>
            0 -1 189 -2.4622811470180750e-03</internalNodes>
          <leafValues>
            3.8874933123588562e-01 -1.2414739280939102e-01</leafValues></_>
        <_>
          <internalNodes>
            0 -1 233 4.0854346007108688e-03</internalNodes>
          <leafValues>
            6.9060571491718292e-02 -7.2291797399520874e-01</leafValues></_>
        <_>
          <internalNodes>
            0 -1 127 -7.6536386040970683e-04</internalNodes>
          <leafValues>
            2.7040863037109375e-01 -1.8300184607505798e-01</leafValues></_>
        <_>
          <internalNodes>
            0 -1 99 1.4406362548470497e-02</internalNodes>
          <leafValues>
            -1.2288966029882431e-01 4.3430835008621216e-01</leafValues></_></weakClassifiers></_>
    <!-- stage 13 -->
    <_>
      <maxWeakCount>23</maxWeakCount>
      <stageThreshold>-1.4609682559967041e+00</stageThreshold>
      <weakClassifiers>
        <_>
          <internalNodes>
            0 -1 49 1.2985532172024250e-02</internalNodes>
          <leafValues>
            -6.7117989063262939e-01 -1.0447761416435242e-01</leafValues></_>
        <_>
          <internalNodes>
            0 -1 156 -2.3452384630218148e-04</internalNodes>
          <leafValues>
            1.0450825095176697e-01 -3.2542526721954346e-01</leafValues></_>
        <_>
          <internalNodes>
            0 -1 24 8.5983343888074160e-04</internalNodes>
          <leafValues>
            6.7601352930068970e-02 -5.5604678392410278e-01</leafValues></_>
        <_>
          <internalNodes>
            0 -1 29 2.7175333816558123e-03</internalNodes>
          <leafValues>
            1.1458392441272736e-01 -5.1997631788253784e-01</leafValues></_>
        <_>
          <internalNodes>
            0 -1 14 3.3980832085944712e-05</internalNodes>
          <leafValues>
            -2.4238876998424530e-01 1.5809032320976257e-01</leafValues></_>
        <_>
          <internalNodes>
            0 -1 196 6.4708961872383952e-05</internalNodes>
          <leafValues>
            1.7170299589633942e-01 -2.4335403740406036e-01</leafValues></_>
        <_>
          <internalNodes>
            0 -1 31 -1.2382230162620544e-01</internalNodes>
          <leafValues>
            -1. 4.0914330631494522e-02</leafValues></_>
        <_>
          <internalNodes>
            0 -1 200 1.5295760240405798e-03</internalNodes>
          <leafValues>
            -1.0504869371652603e-01 4.1328620910644531e-01</leafValues></_>
        <_>
          <internalNodes>
            0 -1 230 3.5341807233635336e-05</internalNodes>
          <leafValues>
            1.5648229420185089e-01 -2.6969647407531738e-01</leafValues></_>
        <_>
          <internalNodes>
            0 -1 188 -3.5982066765427589e-03</internalNodes>
          <leafValues>
            1.9840069115161896e-01 -2.3400934040546417e-01</leafValues></_>
        <_>
          <internalNodes>
            0 -1 155 -1.1349275009706616e-03</internalNodes>
          <leafValues>
            2.5907856225967407e-01 -1.7074918746948242e-01</leafValues></_>
        <_>
          <internalNodes>
            0 -1 52 -1.0674905934138224e-04</internalNodes>
          <leafValues>
            -2.8084328770637512e-01 1.6075091063976288e-01</leafValues></_>
        <_>
          <internalNodes>
            0 -1 148 -1.0533932596445084e-02</internalNodes>
          <leafValues>
            -5.1574522256851196e-01 8.6853981018066406e-02</leafValues></_>
        <_>
          <internalNodes>
            0 -1 218 4.8661726759746671e-04</internalNodes>
          <leafValues>
            -2.3276242613792419e-01 2.0029760897159576e-01</leafValues></_>
        <_>
          <internalNodes>
            0 -1 88 -3.0651021748781204e-02</internalNodes>
          <leafValues>
            4.5099887251853943e-01 -9.9539622664451599e-02</leafValues></_>
        <_>
          <internalNodes>
            0 -1 85 -8.2169121014885604e-05</internalNodes>
          <leafValues>
            2.2270904481410980e-01 -1.9736090302467346e-01</leafValues></_>
        <_>
          <internalNodes>
            0 -1 73 3.7926480174064636e-02</internalNodes>
          <leafValues>
            -2.3519395291805267e-01 1.9993251562118530e-01</leafValues></_>
        <_>
          <internalNodes>
            0 -1 174 -5.2046548807993531e-04</internalNodes>
          <leafValues>
            3.1988471746444702e-01 -1.7344583570957184e-01</leafValues></_>
        <_>
          <internalNodes>
            0 -1 38 -9.9483206868171692e-03</internalNodes>
          <leafValues>
            2.4490489065647125e-01 -1.6526399552822113e-01</leafValues></_>
        <_>
          <internalNodes>
            0 -1 0 3.6007934249937534e-03</internalNodes>
          <leafValues>
            6.0274135321378708e-02 -7.4298906326293945e-01</leafValues></_>
        <_>
          <internalNodes>
            0 -1 105 -5.9287197887897491e-02</internalNodes>
          <leafValues>
            -7.7774184942245483e-01 4.6331446617841721e-02</leafValues></_>
        <_>
          <internalNodes>
            0 -1 76 8.4617190062999725e-02</internalNodes>
          <leafValues>
            -9.2329435050487518e-02 5.0004404783248901e-01</leafValues></_>
        <_>
          <internalNodes>
            0 -1 194 -9.4360206276178360e-03</internalNodes>
          <leafValues>
            4.9902677536010742e-01 -8.3821654319763184e-02</leafValues></_></weakClassifiers></_>
    <!-- stage 14 -->
    <_>
      <maxWeakCount>21</maxWeakCount>
      <stageThreshold>-1.2632505893707275e+00</stageThreshold>
      <weakClassifiers>
        <_>
          <internalNodes>
            0 -1 164 -3.8322687149047852e-02</internalNodes>
          <leafValues>
            4.6666666865348816e-01 -6.5193372964859009e-01</leafValues></_>
        <_>
          <internalNodes>
            0 -1 94 -2.2034065332263708e-03</internalNodes>
          <leafValues>
            -7.5372231006622314e-01 -6.4144596457481384e-02</leafValues></_>
        <_>
          <internalNodes>
            0 -1 94 -1.6706862952560186e-03</internalNodes>
          <leafValues>
            6.8271619081497192e-01 -3.7541314959526062e-02</leafValues></_>
        <_>
          <internalNodes>
            0 -1 108 -1.4008494326844811e-03</internalNodes>
          <leafValues>
            -7.4371188879013062e-01 7.5209015049040318e-03</leafValues></_>
        <_>
          <internalNodes>
            0 -1 1 -9.0388028183951974e-05</internalNodes>
          <leafValues>
            -2.4217607080936432e-01 1.6571572422981262e-01</leafValues></_>
        <_>
          <internalNodes>
            0 -1 116 -2.2577936761081219e-04</internalNodes>
          <leafValues>
            1.9083173573017120e-01 -1.9929043948650360e-01</leafValues></_>
        <_>
          <internalNodes>
            0 -1 204 8.1447418779134750e-05</internalNodes>
          <leafValues>
            -1.8301321566104889e-01 2.2799648344516754e-01</leafValues></_>
        <_>
          <internalNodes>
            0 -1 220 -5.2595240995287895e-03</internalNodes>
          <leafValues>
            2.7012422680854797e-01 -1.4584568142890930e-01</leafValues></_>
        <_>
          <internalNodes>
            0 -1 16 1.2965836504008621e-05</internalNodes>
          <leafValues>
            2.0198307931423187e-01 -2.3062343895435333e-01</leafValues></_>
        <_>
          <internalNodes>
            0 -1 208 4.0530678816139698e-03</internalNodes>
          <leafValues>
            -1.5988749265670776e-01 3.0819198489189148e-01</leafValues></_>
        <_>
          <internalNodes>
            0 -1 18 -5.1298118196427822e-03</internalNodes>
          <leafValues>
            -1. 5.8157332241535187e-02</leafValues></_>
        <_>
          <internalNodes>
            0 -1 183 -4.8554624663665891e-04</internalNodes>
          <leafValues>
            2.4959866702556610e-01 -2.0860774815082550e-01</leafValues></_>
        <_>
          <internalNodes>
            0 -1 28 -4.2139403522014618e-03</internalNodes>
          <leafValues>
            -4.4550123810768127e-01 1.0481508821249008e-01</leafValues></_>
        <_>
          <internalNodes>
            0 -1 227 1.0469884000485763e-04</internalNodes>
          <leafValues>
            1.0596884787082672e-01 -3.5337829589843750e-01</leafValues></_>
        <_>
          <internalNodes>
            0 -1 229 -2.8273876523599029e-05</internalNodes>
          <leafValues>
            2.1994112432003021e-01 -1.9704584777355194e-01</leafValues></_>
        <_>
          <internalNodes>
            0 -1 81 -1.3274659216403961e-01</internalNodes>
          <leafValues>
            -8.3643621206283569e-01 5.3197316825389862e-02</leafValues></_>
        <_>
          <internalNodes>
            0 -1 95 -1.1793730780482292e-02</internalNodes>
          <leafValues>
            2.7915588021278381e-01 -1.7193332314491272e-01</leafValues></_>
        <_>
          <internalNodes>
            0 -1 93 -3.8085808046162128e-03</internalNodes>
          <leafValues>
            2.9030853509902954e-01 -2.0118474960327148e-01</leafValues></_>
        <_>
          <internalNodes>
            0 -1 79 -6.6709304228425026e-03</internalNodes>
          <leafValues>
            4.7777959704399109e-01 -1.3011625409126282e-01</leafValues></_>
        <_>
          <internalNodes>
            0 -1 182 -2.1153646521270275e-03</internalNodes>
          <leafValues>
            3.4000721573829651e-01 -1.3182589411735535e-01</leafValues></_>
        <_>
          <internalNodes>
            0 -1 27 -2.2329529747366905e-04</internalNodes>
          <leafValues>
            -3.0293756723403931e-01 1.6420790553092957e-01</leafValues></_></weakClassifiers></_></stages>
  <features>
    <_>
      <rects>
        <_>
          0 0 4 1 -1.</_>
        <_>
          2 0 2 1 2.</_></rects>
      <tilted>0</tilted></_>
    <_>
      <rects>
        <_>
          0 0 2 2 -1.</_>
        <_>
          0 1 2 1 2.</_></rects>
      <tilted>0</tilted></_>
    <_>
      <rects>
        <_>
          0 0 10 8 -1.</_>
        <_>
          5 0 5 8 2.</_></rects>
      <tilted>0</tilted></_>
    <_>
      <rects>
        <_>
          0 0 12 4 -1.</_>
        <_>
          6 0 6 4 2.</_></rects>
      <tilted>0</tilted></_>
    <_>
      <rects>
        <_>
          0 4 3 3 -1.</_>
        <_>
          0 5 3 1 3.</_></rects>
      <tilted>0</tilted></_>
    <_>
      <rects>
        <_>
          0 5 3 3 -1.</_>
        <_>
          0 6 3 1 3.</_></rects>
      <tilted>0</tilted></_>
    <_>
      <rects>
        <_>
          0 6 10 11 -1.</_>
        <_>
          5 6 5 11 2.</_></rects>
      <tilted>0</tilted></_>
    <_>
      <rects>
        <_>
          0 8 6 6 -1.</_>
        <_>
          0 10 6 2 3.</_></rects>
      <tilted>0</tilted></_>
    <_>
      <rects>
        <_>
          0 9 10 4 -1.</_>
        <_>
          0 11 10 2 2.</_></rects>
      <tilted>0</tilted></_>
    <_>
      <rects>
        <_>
          0 10 12 9 -1.</_>
        <_>
          6 10 6 9 2.</_></rects>
      <tilted>0</tilted></_>
    <_>
      <rects>
        <_>
          0 11 12 1 -1.</_>
        <_>
          4 11 4 1 3.</_></rects>
      <tilted>0</tilted></_>
    <_>
      <rects>
        <_>
          0 12 4 11 -1.</_>
        <_>
          2 12 2 11 2.</_></rects>
      <tilted>0</tilted></_>
    <_>
      <rects>
        <_>
          0 12 20 2 -1.</_>
        <_>
          0 12 10 1 2.</_>
        <_>
          10 13 10 1 2.</_></rects>
      <tilted>0</tilted></_>
    <_>
      <rects>
        <_>
          0 13 24 1 -1.</_>
        <_>
          8 13 8 1 3.</_></rects>
      <tilted>0</tilted></_>
    <_>
      <rects>
        <_>
          0 16 2 2 -1.</_>
        <_>
          1 16 1 2 2.</_></rects>
      <tilted>0</tilted></_>
    <_>
      <rects>
        <_>
          0 16 24 5 -1.</_>
        <_>
          12 16 12 5 2.</_></rects>
      <tilted>0</tilted></_>
    <_>
      <rects>
        <_>
          0 18 3 4 -1.</_>
        <_>
          0 20 3 2 2.</_></rects>
      <tilted>0</tilted></_>
    <_>
      <rects>
        <_>
          0 19 2 4 -1.</_>
        <_>
          0 21 2 2 2.</_></rects>
      <tilted>0</tilted></_>
    <_>
      <rects>
        <_>
          0 19 4 2 -1.</_>
        <_>
          0 20 4 1 2.</_></rects>
      <tilted>0</tilted></_>
    <_>
      <rects>
        <_>
          0 20 2 4 -1.</_>
        <_>
          1 20 1 4 2.</_></rects>
      <tilted>0</tilted></_>
    <_>
      <rects>
        <_>
          0 22 12 2 -1.</_>
        <_>
          4 22 4 2 3.</_></rects>
      <tilted>0</tilted></_>
    <_>
      <rects>
        <_>
          0 23 4 1 -1.</_>
        <_>
          2 23 2 1 2.</_></rects>
      <tilted>0</tilted></_>
    <_>
      <rects>
        <_>
          0 23 6 1 -1.</_>
        <_>
          3 23 3 1 2.</_></rects>
      <tilted>0</tilted></_>
    <_>
      <rects>
        <_>
          0 23 24 1 -1.</_>
        <_>
          8 23 8 1 3.</_></rects>
      <tilted>0</tilted></_>
    <_>
      <rects>
        <_>
          1 0 2 2 -1.</_>
        <_>
          1 1 2 1 2.</_></rects>
      <tilted>0</tilted></_>
    <_>
      <rects>
        <_>
          1 0 16 12 -1.</_>
        <_>
          1 0 8 6 2.</_>
        <_>
          9 6 8 6 2.</_></rects>
      <tilted>0</tilted></_>
    <_>
      <rects>
        <_>
          1 1 1 3 -1.</_>
        <_>
          1 2 1 1 3.</_></rects>
      <tilted>0</tilted></_>
    <_>
      <rects>
        <_>
          1 1 6 1 -1.</_>
        <_>
          4 1 3 1 2.</_></rects>
      <tilted>0</tilted></_>
    <_>
      <rects>
        <_>
          1 2 21 3 -1.</_>
        <_>
          1 3 21 1 3.</_></rects>
      <tilted>0</tilted></_>
    <_>
      <rects>
        <_>
          1 5 6 3 -1.</_>
        <_>
          1 6 6 1 3.</_></rects>
      <tilted>0</tilted></_>
    <_>
      <rects>
        <_>
          1 7 4 3 -1.</_>
        <_>
          1 8 4 1 3.</_></rects>
      <tilted>0</tilted></_>
    <_>
      <rects>
        <_>
          1 8 15 8 -1.</_>
        <_>
          1 12 15 4 2.</_></rects>
      <tilted>0</tilted></_>
    <_>
      <rects>
        <_>
          1 9 9 3 -1.</_>
        <_>
          1 10 9 1 3.</_></rects>
      <tilted>0</tilted></_>
    <_>
      <rects>
        <_>
          1 10 9 6 -1.</_>
        <_>
          4 10 3 6 3.</_></rects>
      <tilted>0</tilted></_>
    <_>
      <rects>
        <_>
          1 12 7 3 -1.</_>
        <_>
          1 13 7 1 3.</_></rects>
      <tilted>0</tilted></_>
    <_>
      <rects>
        <_>
          1 18 6 1 -1.</_>
        <_>
          3 18 2 1 3.</_></rects>
      <tilted>0</tilted></_>
    <_>
      <rects>
        <_>
          1 19 6 2 -1.</_>
        <_>
          1 20 6 1 2.</_></rects>
      <tilted>0</tilted></_>
    <_>
      <rects>
        <_>
          1 20 3 3 -1.</_>
        <_>
          1 21 3 1 3.</_></rects>
      <tilted>0</tilted></_>
    <_>
      <rects>
        <_>
          2 0 4 15 -1.</_>
        <_>
          2 5 4 5 3.</_></rects>
      <tilted>0</tilted></_>
    <_>
      <rects>
        <_>
          2 2 2 9 -1.</_>
        <_>
          2 5 2 3 3.</_></rects>
      <tilted>0</tilted></_>
    <_>
      <rects>
        <_>
          2 2 7 3 -1.</_>
        <_>
          2 3 7 1 3.</_></rects>
      <tilted>0</tilted></_>
    <_>
      <rects>
        <_>
          2 6 6 11 -1.</_>
        <_>
          4 6 2 11 3.</_></rects>
      <tilted>0</tilted></_>
    <_>
      <rects>
        <_>
          2 6 19 3 -1.</_>
        <_>
          2 7 19 1 3.</_></rects>
      <tilted>0</tilted></_>
    <_>
      <rects>
        <_>
          2 8 21 3 -1.</_>
        <_>
          2 9 21 1 3.</_></rects>
      <tilted>0</tilted></_>
    <_>
      <rects>
        <_>
          2 12 16 12 -1.</_>
        <_>
          2 18 16 6 2.</_></rects>
      <tilted>0</tilted></_>
    <_>
      <rects>
        <_>
          2 14 6 3 -1.</_>
        <_>
          2 15 6 1 3.</_></rects>
      <tilted>0</tilted></_>
    <_>
      <rects>
        <_>
          2 16 1 3 -1.</_>
        <_>
          2 17 1 1 3.</_></rects>
      <tilted>0</tilted></_>
    <_>
      <rects>
        <_>
          2 21 6 2 -1.</_>
        <_>
          2 21 3 1 2.</_>
        <_>
          5 22 3 1 2.</_></rects>
      <tilted>0</tilted></_>
    <_>
      <rects>
        <_>
          2 22 6 2 -1.</_>
        <_>
          4 22 2 2 3.</_></rects>
      <tilted>0</tilted></_>
    <_>
      <rects>
        <_>
          2 22 16 2 -1.</_>
        <_>
          2 23 16 1 2.</_></rects>
      <tilted>0</tilted></_>
    <_>
      <rects>
        <_>
          2 22 20 2 -1.</_>
        <_>
          2 23 20 1 2.</_></rects>
      <tilted>0</tilted></_>
    <_>
      <rects>
        <_>
          3 0 8 8 -1.</_>
        <_>
          3 0 4 4 2.</_>
        <_>
          7 4 4 4 2.</_></rects>
      <tilted>0</tilted></_>
    <_>
      <rects>
        <_>
          3 0 14 2 -1.</_>
        <_>
          10 0 7 2 2.</_></rects>
      <tilted>0</tilted></_>
    <_>
      <rects>
        <_>
          3 0 21 15 -1.</_>
        <_>
          10 0 7 15 3.</_></rects>
      <tilted>0</tilted></_>
    <_>
      <rects>
        <_>
          3 0 16 24 -1.</_>
        <_>
          3 8 16 8 3.</_></rects>
      <tilted>0</tilted></_>
    <_>
      <rects>
        <_>
          3 1 10 22 -1.</_>
        <_>
          3 1 5 11 2.</_>
        <_>
          8 12 5 11 2.</_></rects>
      <tilted>0</tilted></_>
    <_>
      <rects>
        <_>
          3 2 21 13 -1.</_>
        <_>
          10 2 7 13 3.</_></rects>
      <tilted>0</tilted></_>
    <_>
      <rects>
        <_>
          3 3 1 15 -1.</_>
        <_>
          3 8 1 5 3.</_></rects>
      <tilted>0</tilted></_>
    <_>
      <rects>
        <_>
          3 7 16 3 -1.</_>
        <_>
          3 8 16 1 3.</_></rects>
      <tilted>0</tilted></_>
    <_>
      <rects>
        <_>
          3 8 18 5 -1.</_>
        <_>
          9 8 6 5 3.</_></rects>
      <tilted>0</tilted></_>
    <_>
      <rects>
        <_>
          3 9 16 6 -1.</_>
        <_>
          3 9 8 3 2.</_>
        <_>
          11 12 8 3 2.</_></rects>
      <tilted>0</tilted></_>
    <_>
      <rects>
        <_>
          3 10 21 6 -1.</_>
        <_>
          10 10 7 6 3.</_></rects>
      <tilted>0</tilted></_>
    <_>
      <rects>
        <_>
          3 13 9 6 -1.</_>
        <_>
          6 13 3 6 3.</_></rects>
      <tilted>0</tilted></_>
    <_>
      <rects>
        <_>
          3 18 1 2 -1.</_>
        <_>
          3 19 1 1 2.</_></rects>
      <tilted>0</tilted></_>
    <_>
      <rects>
        <_>
          4 0 3 1 -1.</_>
        <_>
          5 0 1 1 3.</_></rects>
      <tilted>0</tilted></_>
    <_>
      <rects>
        <_>
          4 7 10 6 -1.</_>
        <_>
          4 10 10 3 2.</_></rects>
      <tilted>0</tilted></_>
    <_>
      <rects>
        <_>
          4 10 3 6 -1.</_>
        <_>
          4 13 3 3 2.</_></rects>
      <tilted>0</tilted></_>
    <_>
      <rects>
        <_>
          4 10 18 7 -1.</_>
        <_>
          10 10 6 7 3.</_></rects>
      <tilted>0</tilted></_>
    <_>
      <rects>
        <_>
          4 11 3 4 -1.</_>
        <_>
          5 11 1 4 3.</_></rects>
      <tilted>0</tilted></_>
    <_>
      <rects>
        <_>
          4 19 13 4 -1.</_>
        <_>
          4 21 13 2 2.</_></rects>
      <tilted>0</tilted></_>
    <_>
      <rects>
        <_>
          4 21 16 2 -1.</_>
        <_>
          4 22 16 1 2.</_></rects>
      <tilted>0</tilted></_>
    <_>
      <rects>
        <_>
          5 0 5 6 -1.</_>
        <_>
          5 3 5 3 2.</_></rects>
      <tilted>0</tilted></_>
    <_>
      <rects>
        <_>
          5 0 18 14 -1.</_>
        <_>
          5 0 9 7 2.</_>
        <_>
          14 7 9 7 2.</_></rects>
      <tilted>0</tilted></_>
    <_>
      <rects>
        <_>
          5 0 12 12 -1.</_>
        <_>
          5 6 12 6 2.</_></rects>
      <tilted>0</tilted></_>
    <_>
      <rects>
        <_>
          5 0 19 4 -1.</_>
        <_>
          5 2 19 2 2.</_></rects>
      <tilted>0</tilted></_>
    <_>
      <rects>
        <_>
          5 1 6 1 -1.</_>
        <_>
          7 1 2 1 3.</_></rects>
      <tilted>0</tilted></_>
    <_>
      <rects>
        <_>
          5 1 10 14 -1.</_>
        <_>
          5 1 5 7 2.</_>
        <_>
          10 8 5 7 2.</_></rects>
      <tilted>0</tilted></_>
    <_>
      <rects>
        <_>
          5 2 6 4 -1.</_>
        <_>
          5 4 6 2 2.</_></rects>
      <tilted>0</tilted></_>
    <_>
      <rects>
        <_>
          5 4 1 3 -1.</_>
        <_>
          5 5 1 1 3.</_></rects>
      <tilted>0</tilted></_>
    <_>
      <rects>
        <_>
          5 5 3 9 -1.</_>
        <_>
          6 5 1 9 3.</_></rects>
      <tilted>0</tilted></_>
    <_>
      <rects>
        <_>
          5 5 2 13 -1.</_>
        <_>
          6 5 1 13 2.</_></rects>
      <tilted>0</tilted></_>
    <_>
      <rects>
        <_>
          5 5 12 16 -1.</_>
        <_>
          9 5 4 16 3.</_></rects>
      <tilted>0</tilted></_>
    <_>
      <rects>
        <_>
          5 7 6 4 -1.</_>
        <_>
          5 7 3 2 2.</_>
        <_>
          8 9 3 2 2.</_></rects>
      <tilted>0</tilted></_>
    <_>
      <rects>
        <_>
          5 8 3 12 -1.</_>
        <_>
          6 8 1 12 3.</_></rects>
      <tilted>0</tilted></_>
    <_>
      <rects>
        <_>
          5 14 3 1 -1.</_>
        <_>
          6 14 1 1 3.</_></rects>
      <tilted>0</tilted></_>
    <_>
      <rects>
        <_>
          5 14 2 2 -1.</_>
        <_>
          5 14 1 1 2.</_>
        <_>
          6 15 1 1 2.</_></rects>
      <tilted>0</tilted></_>
    <_>
      <rects>
        <_>
          5 18 12 6 -1.</_>
        <_>
          5 20 12 2 3.</_></rects>
      <tilted>0</tilted></_>
    <_>
      <rects>
        <_>
          5 23 9 1 -1.</_>
        <_>
          8 23 3 1 3.</_></rects>
      <tilted>0</tilted></_>
    <_>
      <rects>
        <_>
          6 0 6 12 -1.</_>
        <_>
          9 0 3 12 2.</_></rects>
      <tilted>0</tilted></_>
    <_>
      <rects>
        <_>
          6 2 6 5 -1.</_>
        <_>
          9 2 3 5 2.</_></rects>
      <tilted>0</tilted></_>
    <_>
      <rects>
        <_>
          6 2 10 14 -1.</_>
        <_>
          6 2 5 7 2.</_>
        <_>
          11 9 5 7 2.</_></rects>
      <tilted>0</tilted></_>
    <_>
      <rects>
        <_>
          6 4 2 6 -1.</_>
        <_>
          6 7 2 3 2.</_></rects>
      <tilted>0</tilted></_>
    <_>
      <rects>
        <_>
          6 6 4 8 -1.</_>
        <_>
          6 6 2 4 2.</_>
        <_>
          8 10 2 4 2.</_></rects>
      <tilted>0</tilted></_>
    <_>
      <rects>
        <_>
          6 7 6 4 -1.</_>
        <_>
          8 7 2 4 3.</_></rects>
      <tilted>0</tilted></_>
    <_>
      <rects>
        <_>
          6 7 3 2 -1.</_>
        <_>
          6 8 3 1 2.</_></rects>
      <tilted>0</tilted></_>
    <_>
      <rects>
        <_>
          6 7 12 8 -1.</_>
        <_>
          10 7 4 8 3.</_></rects>
      <tilted>0</tilted></_>
    <_>
      <rects>
        <_>
          6 8 16 8 -1.</_>
        <_>
          6 8 8 4 2.</_>
        <_>
          14 12 8 4 2.</_></rects>
      <tilted>0</tilted></_>
    <_>
      <rects>
        <_>
          6 8 14 6 -1.</_>
        <_>
          6 10 14 2 3.</_></rects>
      <tilted>0</tilted></_>
    <_>
      <rects>
        <_>
          6 9 8 6 -1.</_>
        <_>
          6 12 8 3 2.</_></rects>
      <tilted>0</tilted></_>
    <_>
      <rects>
        <_>
          6 9 9 4 -1.</_>
        <_>
          6 11 9 2 2.</_></rects>
      <tilted>0</tilted></_>
    <_>
      <rects>
        <_>
          6 11 3 9 -1.</_>
        <_>
          7 11 1 9 3.</_></rects>
      <tilted>0</tilted></_>
    <_>
      <rects>
        <_>
          6 15 3 6 -1.</_>
        <_>
          6 17 3 2 3.</_></rects>
      <tilted>0</tilted></_>
    <_>
      <rects>
        <_>
          6 20 2 2 -1.</_>
        <_>
          6 20 1 1 2.</_>
        <_>
          7 21 1 1 2.</_></rects>
      <tilted>0</tilted></_>
    <_>
      <rects>
        <_>
          6 20 8 3 -1.</_>
        <_>
          10 20 4 3 2.</_></rects>
      <tilted>0</tilted></_>
    <_>
      <rects>
        <_>
          6 21 3 2 -1.</_>
        <_>
          7 21 1 2 3.</_></rects>
      <tilted>0</tilted></_>
    <_>
      <rects>
        <_>
          7 3 10 9 -1.</_>
        <_>
          7 6 10 3 3.</_></rects>
      <tilted>0</tilted></_>
    <_>
      <rects>
        <_>
          7 5 6 6 -1.</_>
        <_>
          9 5 2 6 3.</_></rects>
      <tilted>0</tilted></_>
    <_>
      <rects>
        <_>
          7 6 9 12 -1.</_>
        <_>
          10 6 3 12 3.</_></rects>
      <tilted>0</tilted></_>
    <_>
      <rects>
        <_>
          7 7 2 2 -1.</_>
        <_>
          7 8 2 1 2.</_></rects>
      <tilted>0</tilted></_>
    <_>
      <rects>
        <_>
          7 7 6 5 -1.</_>
        <_>
          9 7 2 5 3.</_></rects>
      <tilted>0</tilted></_>
    <_>
      <rects>
        <_>
          7 8 4 2 -1.</_>
        <_>
          9 8 2 2 2.</_></rects>
      <tilted>0</tilted></_>
    <_>
      <rects>
        <_>
          7 9 15 5 -1.</_>
        <_>
          12 9 5 5 3.</_></rects>
      <tilted>0</tilted></_>
    <_>
      <rects>
        <_>
          7 10 3 3 -1.</_>
        <_>
          8 10 1 3 3.</_></rects>
      <tilted>0</tilted></_>
    <_>
      <rects>
        <_>
          7 11 4 9 -1.</_>
        <_>
          9 11 2 9 2.</_></rects>
      <tilted>0</tilted></_>
    <_>
      <rects>
        <_>
          7 17 3 3 -1.</_>
        <_>
          8 17 1 3 3.</_></rects>
      <tilted>0</tilted></_>
    <_>
      <rects>
        <_>
          8 0 1 3 -1.</_>
        <_>
          8 1 1 1 3.</_></rects>
      <tilted>0</tilted></_>
    <_>
      <rects>
        <_>
          8 2 16 3 -1.</_>
        <_>
          8 3 16 1 3.</_></rects>
      <tilted>0</tilted></_>
    <_>
      <rects>
        <_>
          8 4 3 5 -1.</_>
        <_>
          9 4 1 5 3.</_></rects>
      <tilted>0</tilted></_>
    <_>
      <rects>
        <_>
          8 10 14 11 -1.</_>
        <_>
          15 10 7 11 2.</_></rects>
      <tilted>0</tilted></_>
    <_>
      <rects>
        <_>
          8 12 2 6 -1.</_>
        <_>
          8 12 1 3 2.</_>
        <_>
          9 15 1 3 2.</_></rects>
      <tilted>0</tilted></_>
    <_>
      <rects>
        <_>
          8 20 2 4 -1.</_>
        <_>
          9 20 1 4 2.</_></rects>
      <tilted>0</tilted></_>
    <_>
      <rects>
        <_>
          8 21 2 3 -1.</_>
        <_>
          8 22 2 1 3.</_></rects>
      <tilted>0</tilted></_>
    <_>
      <rects>
        <_>
          8 23 16 1 -1.</_>
        <_>
          16 23 8 1 2.</_></rects>
      <tilted>0</tilted></_>
    <_>
      <rects>
        <_>
          9 0 3 1 -1.</_>
        <_>
          10 0 1 1 3.</_></rects>
      <tilted>0</tilted></_>
    <_>
      <rects>
        <_>
          9 0 4 24 -1.</_>
        <_>
          9 8 4 8 3.</_></rects>
      <tilted>0</tilted></_>
    <_>
      <rects>
        <_>
          9 0 6 24 -1.</_>
        <_>
          9 8 6 8 3.</_></rects>
      <tilted>0</tilted></_>
    <_>
      <rects>
        <_>
          9 0 10 16 -1.</_>
        <_>
          9 8 10 8 2.</_></rects>
      <tilted>0</tilted></_>
    <_>
      <rects>
        <_>
          9 2 3 4 -1.</_>
        <_>
          10 2 1 4 3.</_></rects>
      <tilted>0</tilted></_>
    <_>
      <rects>
        <_>
          9 2 6 7 -1.</_>
        <_>
          12 2 3 7 2.</_></rects>
      <tilted>0</tilted></_>
    <_>
      <rects>
        <_>
          9 2 14 3 -1.</_>
        <_>
          9 3 14 1 3.</_></rects>
      <tilted>0</tilted></_>
    <_>
      <rects>
        <_>
          9 3 15 17 -1.</_>
        <_>
          14 3 5 17 3.</_></rects>
      <tilted>0</tilted></_>
    <_>
      <rects>
        <_>
          9 4 3 3 -1.</_>
        <_>
          10 4 1 3 3.</_></rects>
      <tilted>0</tilted></_>
    <_>
      <rects>
        <_>
          9 5 1 3 -1.</_>
        <_>
          9 6 1 1 3.</_></rects>
      <tilted>0</tilted></_>
    <_>
      <rects>
        <_>
          9 9 14 3 -1.</_>
        <_>
          9 10 14 1 3.</_></rects>
      <tilted>0</tilted></_>
    <_>
      <rects>
        <_>
          9 11 3 9 -1.</_>
        <_>
          10 11 1 9 3.</_></rects>
      <tilted>0</tilted></_>
    <_>
      <rects>
        <_>
          9 11 3 10 -1.</_>
        <_>
          10 11 1 10 3.</_></rects>
      <tilted>0</tilted></_>
    <_>
      <rects>
        <_>
          9 11 3 12 -1.</_>
        <_>
          10 11 1 12 3.</_></rects>
      <tilted>0</tilted></_>
    <_>
      <rects>
        <_>
          9 11 3 3 -1.</_>
        <_>
          9 12 3 1 3.</_></rects>
      <tilted>0</tilted></_>
    <_>
      <rects>
        <_>
          9 12 4 2 -1.</_>
        <_>
          11 12 2 2 2.</_></rects>
      <tilted>0</tilted></_>
    <_>
      <rects>
        <_>
          9 13 2 3 -1.</_>
        <_>
          9 14 2 1 3.</_></rects>
      <tilted>0</tilted></_>
    <_>
      <rects>
        <_>
          9 14 9 1 -1.</_>
        <_>
          12 14 3 1 3.</_></rects>
      <tilted>0</tilted></_>
    <_>
      <rects>
        <_>
          9 16 2 6 -1.</_>
        <_>
          9 18 2 2 3.</_></rects>
      <tilted>0</tilted></_>
    <_>
      <rects>
        <_>
          9 19 6 2 -1.</_>
        <_>
          9 19 3 1 2.</_>
        <_>
          12 20 3 1 2.</_></rects>
      <tilted>0</tilted></_>
    <_>
      <rects>
        <_>
          9 20 14 1 -1.</_>
        <_>
          16 20 7 1 2.</_></rects>
      <tilted>0</tilted></_>
    <_>
      <rects>
        <_>
          10 1 11 4 -1.</_>
        <_>
          10 3 11 2 2.</_></rects>
      <tilted>0</tilted></_>
    <_>
      <rects>
        <_>
          10 3 1 18 -1.</_>
        <_>
          10 9 1 6 3.</_></rects>
      <tilted>0</tilted></_>
    <_>
      <rects>
        <_>
          10 4 3 10 -1.</_>
        <_>
          11 4 1 10 3.</_></rects>
      <tilted>0</tilted></_>
    <_>
      <rects>
        <_>
          10 14 1 2 -1.</_>
        <_>
          10 15 1 1 2.</_></rects>
      <tilted>0</tilted></_>
    <_>
      <rects>
        <_>
          10 15 3 4 -1.</_>
        <_>
          10 17 3 2 2.</_></rects>
      <tilted>0</tilted></_>
    <_>
      <rects>
        <_>
          10 17 3 3 -1.</_>
        <_>
          11 17 1 3 3.</_></rects>
      <tilted>0</tilted></_>
    <_>
      <rects>
        <_>
          10 22 6 1 -1.</_>
        <_>
          12 22 2 1 3.</_></rects>
      <tilted>0</tilted></_>
    <_>
      <rects>
        <_>
          10 22 6 2 -1.</_>
        <_>
          12 22 2 2 3.</_></rects>
      <tilted>0</tilted></_>
    <_>
      <rects>
        <_>
          11 0 11 6 -1.</_>
        <_>
          11 3 11 3 2.</_></rects>
      <tilted>0</tilted></_>
    <_>
      <rects>
        <_>
          11 5 2 2 -1.</_>
        <_>
          11 5 1 1 2.</_>
        <_>
          12 6 1 1 2.</_></rects>
      <tilted>0</tilted></_>
    <_>
      <rects>
        <_>
          11 5 2 6 -1.</_>
        <_>
          11 5 1 3 2.</_>
        <_>
          12 8 1 3 2.</_></rects>
      <tilted>0</tilted></_>
    <_>
      <rects>
        <_>
          11 5 4 2 -1.</_>
        <_>
          13 5 2 2 2.</_></rects>
      <tilted>0</tilted></_>
    <_>
      <rects>
        <_>
          11 6 3 2 -1.</_>
        <_>
          12 6 1 2 3.</_></rects>
      <tilted>0</tilted></_>
    <_>
      <rects>
        <_>
          11 7 3 8 -1.</_>
        <_>
          12 7 1 8 3.</_></rects>
      <tilted>0</tilted></_>
    <_>
      <rects>
        <_>
          11 9 7 2 -1.</_>
        <_>
          11 10 7 1 2.</_></rects>
      <tilted>0</tilted></_>
    <_>
      <rects>
        <_>
          11 11 6 10 -1.</_>
        <_>
          13 11 2 10 3.</_></rects>
      <tilted>0</tilted></_>
    <_>
      <rects>
        <_>
          11 12 2 2 -1.</_>
        <_>
          11 12 1 1 2.</_>
        <_>
          12 13 1 1 2.</_></rects>
      <tilted>0</tilted></_>
    <_>
      <rects>
        <_>
          11 14 2 2 -1.</_>
        <_>
          11 14 1 1 2.</_>
        <_>
          12 15 1 1 2.</_></rects>
      <tilted>0</tilted></_>
    <_>
      <rects>
        <_>
          11 17 2 3 -1.</_>
        <_>
          11 18 2 1 3.</_></rects>
      <tilted>0</tilted></_>
    <_>
      <rects>
        <_>
          11 23 12 1 -1.</_>
        <_>
          17 23 6 1 2.</_></rects>
      <tilted>0</tilted></_>
    <_>
      <rects>
        <_>
          12 0 11 4 -1.</_>
        <_>
          12 2 11 2 2.</_></rects>
      <tilted>0</tilted></_>
    <_>
      <rects>
        <_>
          12 2 2 15 -1.</_>
        <_>
          12 7 2 5 3.</_></rects>
      <tilted>0</tilted></_>
    <_>
      <rects>
        <_>
          12 10 2 6 -1.</_>
        <_>
          12 10 1 3 2.</_>
        <_>
          13 13 1 3 2.</_></rects>
      <tilted>0</tilted></_>
    <_>
      <rects>
        <_>
          12 12 4 2 -1.</_>
        <_>
          12 12 2 1 2.</_>
        <_>
          14 13 2 1 2.</_></rects>
      <tilted>0</tilted></_>
    <_>
      <rects>
        <_>
          12 18 1 6 -1.</_>
        <_>
          12 20 1 2 3.</_></rects>
      <tilted>0</tilted></_>
    <_>
      <rects>
        <_>
          12 20 4 3 -1.</_>
        <_>
          14 20 2 3 2.</_></rects>
      <tilted>0</tilted></_>
    <_>
      <rects>
        <_>
          12 20 8 2 -1.</_>
        <_>
          12 21 8 1 2.</_></rects>
      <tilted>0</tilted></_>
    <_>
      <rects>
        <_>
          12 22 2 2 -1.</_>
        <_>
          13 22 1 2 2.</_></rects>
      <tilted>0</tilted></_>
    <_>
      <rects>
        <_>
          12 23 2 1 -1.</_>
        <_>
          13 23 1 1 2.</_></rects>
      <tilted>0</tilted></_>
    <_>
      <rects>
        <_>
          13 0 7 3 -1.</_>
        <_>
          13 1 7 1 3.</_></rects>
      <tilted>0</tilted></_>
    <_>
      <rects>
        <_>
          13 4 1 4 -1.</_>
        <_>
          13 6 1 2 2.</_></rects>
      <tilted>0</tilted></_>
    <_>
      <rects>
        <_>
          13 7 7 6 -1.</_>
        <_>
          13 10 7 3 2.</_></rects>
      <tilted>0</tilted></_>
    <_>
      <rects>
        <_>
          13 13 3 4 -1.</_>
        <_>
          14 13 1 4 3.</_></rects>
      <tilted>0</tilted></_>
    <_>
      <rects>
        <_>
          14 0 8 3 -1.</_>
        <_>
          14 1 8 1 3.</_></rects>
      <tilted>0</tilted></_>
    <_>
      <rects>
        <_>
          14 1 1 2 -1.</_>
        <_>
          14 2 1 1 2.</_></rects>
      <tilted>0</tilted></_>
    <_>
      <rects>
        <_>
          14 1 10 10 -1.</_>
        <_>
          14 1 5 5 2.</_>
        <_>
          19 6 5 5 2.</_></rects>
      <tilted>0</tilted></_>
    <_>
      <rects>
        <_>
          14 4 4 6 -1.</_>
        <_>
          16 4 2 6 2.</_></rects>
      <tilted>0</tilted></_>
    <_>
      <rects>
        <_>
          14 7 9 9 -1.</_>
        <_>
          17 7 3 9 3.</_></rects>
      <tilted>0</tilted></_>
    <_>
      <rects>
        <_>
          14 10 3 5 -1.</_>
        <_>
          15 10 1 5 3.</_></rects>
      <tilted>0</tilted></_>
    <_>
      <rects>
        <_>
          14 12 2 3 -1.</_>
        <_>
          14 13 2 1 3.</_></rects>
      <tilted>0</tilted></_>
    <_>
      <rects>
        <_>
          14 13 3 3 -1.</_>
        <_>
          15 13 1 3 3.</_></rects>
      <tilted>0</tilted></_>
    <_>
      <rects>
        <_>
          14 15 1 2 -1.</_>
        <_>
          14 16 1 1 2.</_></rects>
      <tilted>0</tilted></_>
    <_>
      <rects>
        <_>
          14 23 3 1 -1.</_>
        <_>
          15 23 1 1 3.</_></rects>
      <tilted>0</tilted></_>
    <_>
      <rects>
        <_>
          15 1 2 2 -1.</_>
        <_>
          15 1 1 1 2.</_>
        <_>
          16 2 1 1 2.</_></rects>
      <tilted>0</tilted></_>
    <_>
      <rects>
        <_>
          15 2 9 19 -1.</_>
        <_>
          18 2 3 19 3.</_></rects>
      <tilted>0</tilted></_>
    <_>
      <rects>
        <_>
          15 9 2 3 -1.</_>
        <_>
          16 9 1 3 2.</_></rects>
      <tilted>0</tilted></_>
    <_>
      <rects>
        <_>
          15 9 3 8 -1.</_>
        <_>
          16 9 1 8 3.</_></rects>
      <tilted>0</tilted></_>
    <_>
      <rects>
        <_>
          15 11 9 6 -1.</_>
        <_>
          18 11 3 6 3.</_></rects>
      <tilted>0</tilted></_>
    <_>
      <rects>
        <_>
          15 12 7 9 -1.</_>
        <_>
          15 15 7 3 3.</_></rects>
      <tilted>0</tilted></_>
    <_>
      <rects>
        <_>
          15 13 2 2 -1.</_>
        <_>
          15 13 1 1 2.</_>
        <_>
          16 14 1 1 2.</_></rects>
      <tilted>0</tilted></_>
    <_>
      <rects>
        <_>
          16 0 1 12 -1.</_>
        <_>
          16 6 1 6 2.</_></rects>
      <tilted>0</tilted></_>
    <_>
      <rects>
        <_>
          16 0 2 14 -1.</_>
        <_>
          17 0 1 14 2.</_></rects>
      <tilted>0</tilted></_>
    <_>
      <rects>
        <_>
          16 0 5 3 -1.</_>
        <_>
          16 1 5 1 3.</_></rects>
      <tilted>0</tilted></_>
    <_>
      <rects>
        <_>
          16 1 5 3 -1.</_>
        <_>
          16 2 5 1 3.</_></rects>
      <tilted>0</tilted></_>
    <_>
      <rects>
        <_>
          16 12 2 2 -1.</_>
        <_>
          16 12 1 1 2.</_>
        <_>
          17 13 1 1 2.</_></rects>
      <tilted>0</tilted></_>
    <_>
      <rects>
        <_>
          16 12 4 4 -1.</_>
        <_>
          16 14 4 2 2.</_></rects>
      <tilted>0</tilted></_>
    <_>
      <rects>
        <_>
          16 17 4 1 -1.</_>
        <_>
          18 17 2 1 2.</_></rects>
      <tilted>0</tilted></_>
    <_>
      <rects>
        <_>
          17 0 3 1 -1.</_>
        <_>
          18 0 1 1 3.</_></rects>
      <tilted>0</tilted></_>
    <_>
      <rects>
        <_>
          17 2 6 6 -1.</_>
        <_>
          19 2 2 6 3.</_></rects>
      <tilted>0</tilted></_>
    <_>
      <rects>
        <_>
          17 4 2 10 -1.</_>
        <_>
          17 4 1 5 2.</_>
        <_>
          18 9 1 5 2.</_></rects>
      <tilted>0</tilted></_>
    <_>
      <rects>
        <_>
          17 10 2 1 -1.</_>
        <_>
          18 10 1 1 2.</_></rects>
      <tilted>0</tilted></_>
    <_>
      <rects>
        <_>
          17 11 2 4 -1.</_>
        <_>
          17 11 1 2 2.</_>
        <_>
          18 13 1 2 2.</_></rects>
      <tilted>0</tilted></_>
    <_>
      <rects>
        <_>
          17 11 3 8 -1.</_>
        <_>
          18 11 1 8 3.</_></rects>
      <tilted>0</tilted></_>
    <_>
      <rects>
        <_>
          17 13 2 4 -1.</_>
        <_>
          17 13 1 2 2.</_>
        <_>
          18 15 1 2 2.</_></rects>
      <tilted>0</tilted></_>
    <_>
      <rects>
        <_>
          17 17 4 6 -1.</_>
        <_>
          17 19 4 2 3.</_></rects>
      <tilted>0</tilted></_>
    <_>
      <rects>
        <_>
          18 0 2 2 -1.</_>
        <_>
          18 0 1 1 2.</_>
        <_>
          19 1 1 1 2.</_></rects>
      <tilted>0</tilted></_>
    <_>
      <rects>
        <_>
          18 0 6 2 -1.</_>
        <_>
          18 0 3 1 2.</_>
        <_>
          21 1 3 1 2.</_></rects>
      <tilted>0</tilted></_>
    <_>
      <rects>
        <_>
          18 1 4 3 -1.</_>
        <_>
          18 2 4 1 3.</_></rects>
      <tilted>0</tilted></_>
    <_>
      <rects>
        <_>
          18 21 6 2 -1.</_>
        <_>
          21 21 3 2 2.</_></rects>
      <tilted>0</tilted></_>
    <_>
      <rects>
        <_>
          19 0 5 2 -1.</_>
        <_>
          19 1 5 1 2.</_></rects>
      <tilted>0</tilted></_>
    <_>
      <rects>
        <_>
          19 1 1 3 -1.</_>
        <_>
          19 2 1 1 3.</_></rects>
      <tilted>0</tilted></_>
    <_>
      <rects>
        <_>
          19 5 3 3 -1.</_>
        <_>
          19 6 3 1 3.</_></rects>
      <tilted>0</tilted></_>
    <_>
      <rects>
        <_>
          19 11 2 4 -1.</_>
        <_>
          20 11 1 4 2.</_></rects>
      <tilted>0</tilted></_>
    <_>
      <rects>
        <_>
          19 11 2 10 -1.</_>
        <_>
          19 16 2 5 2.</_></rects>
      <tilted>0</tilted></_>
    <_>
      <rects>
        <_>
          19 12 2 12 -1.</_>
        <_>
          19 12 1 6 2.</_>
        <_>
          20 18 1 6 2.</_></rects>
      <tilted>0</tilted></_>
    <_>
      <rects>
        <_>
          19 13 3 2 -1.</_>
        <_>
          20 13 1 2 3.</_></rects>
      <tilted>0</tilted></_>
    <_>
      <rects>
        <_>
          19 15 3 9 -1.</_>
        <_>
          19 18 3 3 3.</_></rects>
      <tilted>0</tilted></_>
    <_>
      <rects>
        <_>
          19 20 2 2 -1.</_>
        <_>
          19 20 1 1 2.</_>
        <_>
          20 21 1 1 2.</_></rects>
      <tilted>0</tilted></_>
    <_>
      <rects>
        <_>
          19 20 3 3 -1.</_>
        <_>
          20 20 1 3 3.</_></rects>
      <tilted>0</tilted></_>
    <_>
      <rects>
        <_>
          21 14 3 4 -1.</_>
        <_>
          22 14 1 4 3.</_></rects>
      <tilted>0</tilted></_>
    <_>
      <rects>
        <_>
          21 17 1 3 -1.</_>
        <_>
          21 18 1 1 3.</_></rects>
      <tilted>0</tilted></_>
    <_>
      <rects>
        <_>
          21 21 2 3 -1.</_>
        <_>
          22 21 1 3 2.</_></rects>
      <tilted>0</tilted></_>
    <_>
      <rects>
        <_>
          21 22 2 2 -1.</_>
        <_>
          21 23 2 1 2.</_></rects>
      <tilted>0</tilted></_>
    <_>
      <rects>
        <_>
          21 23 2 1 -1.</_>
        <_>
          22 23 1 1 2.</_></rects>
      <tilted>0</tilted></_>
    <_>
      <rects>
        <_>
          21 23 3 1 -1.</_>
        <_>
          22 23 1 1 3.</_></rects>
      <tilted>0</tilted></_>
    <_>
      <rects>
        <_>
          22 0 2 1 -1.</_>
        <_>
          23 0 1 1 2.</_></rects>
      <tilted>0</tilted></_>
    <_>
      <rects>
        <_>
          22 1 2 5 -1.</_>
        <_>
          23 1 1 5 2.</_></rects>
      <tilted>0</tilted></_>
    <_>
      <rects>
        <_>
          22 7 2 17 -1.</_>
        <_>
          23 7 1 17 2.</_></rects>
      <tilted>0</tilted></_>
    <_>
      <rects>
        <_>
          22 8 2 2 -1.</_>
        <_>
          23 8 1 2 2.</_></rects>
      <tilted>0</tilted></_>
    <_>
      <rects>
        <_>
          22 9 2 7 -1.</_>
        <_>
          23 9 1 7 2.</_></rects>
      <tilted>0</tilted></_>
    <_>
      <rects>
        <_>
          23 1 1 2 -1.</_>
        <_>
          23 2 1 1 2.</_></rects>
      <tilted>0</tilted></_>
    <_>
      <rects>
        <_>
          23 3 1 3 -1.</_>
        <_>
          23 4 1 1 3.</_></rects>
      <tilted>0</tilted></_>
    <_>
      <rects>
        <_>
          23 9 1 3 -1.</_>
        <_>
          23 10 1 1 3.</_></rects>
      <tilted>0</tilted></_></features></cascade>
</opencv_storage>
