<?xml version="1.0"?>
<opencv_storage>
<stage4>
  <maxWeakCount>12</maxWeakCount>
  <stageThreshold>-1.4397840499877930e+00</stageThreshold>
  <weakClassifiers>
    <_>
      <internalNodes>
        0 -1 40299 2.6409876346588135e-01</internalNodes>
      <leafValues>
        -7.1692305803298950e-01 -1.5873016789555550e-02</leafValues></_>
    <_>
      <internalNodes>
        0 -1 5111 -1.3777699787169695e-03</internalNodes>
      <leafValues>
        -6.9332963228225708e-01 -3.6344092339277267e-02</leafValues></_>
    <_>
      <internalNodes>
        0 -1 162120 8.5157505236566067e-04</internalNodes>
      <leafValues>
        6.0785397887229919e-02 -8.7670069932937622e-01</leafValues></_>
    <_>
      <internalNodes>
        0 -1 134149 5.2316403016448021e-03</internalNodes>
      <leafValues>
        9.0750187635421753e-02 -8.1170922517776489e-01</leafValues></_>
    <_>
      <internalNodes>
        0 -1 104429 5.8836033567786217e-03</internalNodes>
      <leafValues>
        -1.5774229168891907e-01 4.1630026698112488e-01</leafValues></_>
    <_>
      <internalNodes>
        0 -1 84876 -3.2317318022251129e-02</internalNodes>
      <leafValues>
        4.3308472633361816e-01 -1.5263478457927704e-01</leafValues></_>
    <_>
      <internalNodes>
        0 -1 128413 -4.1830483824014664e-03</internalNodes>
      <leafValues>
        -6.8295788764953613e-01 1.2223946303129196e-01</leafValues></_>
    <_>
      <internalNodes>
        0 -1 72478 2.9229267966002226e-03</internalNodes>
      <leafValues>
        -2.6166969537734985e-01 2.7570390701293945e-01</leafValues></_>
    <_>
      <internalNodes>
        0 -1 21676 1.5784475952386856e-02</internalNodes>
      <leafValues>
        -1.8219560384750366e-01 3.8358595967292786e-01</leafValues></_>
    <_>
      <internalNodes>
        0 -1 98405 -2.1813721396028996e-03</internalNodes>
      <leafValues>
        -8.1724852323532104e-01 8.1560291349887848e-02</leafValues></_>
    <_>
      <internalNodes>
        0 -1 155200 1.0769574437290430e-03</internalNodes>
      <leafValues>
        1.3313238322734833e-01 -4.1522344946861267e-01</leafValues></_>
    <_>
      <internalNodes>
        0 -1 31801 1.0259799659252167e-02</internalNodes>
      <leafValues>
        8.3549089729785919e-02 -8.2685381174087524e-01</leafValues></_></weakClassifiers></stage4>
</opencv_storage>
