<?xml version="1.0"?>
<opencv_storage>
<stage1>
  <maxWeakCount>9</maxWeakCount>
  <stageThreshold>-1.6711592674255371e+00</stageThreshold>
  <weakClassifiers>
    <_>
      <internalNodes>
        0 -1 10807 3.9210774004459381e-02</internalNodes>
      <leafValues>
        -7.1679687500000000e-01 4.2857143282890320e-01</leafValues></_>
    <_>
      <internalNodes>
        0 -1 147228 -1.5597639503539540e-05</internalNodes>
      <leafValues>
        3.2475778460502625e-01 -4.6982842683792114e-01</leafValues></_>
    <_>
      <internalNodes>
        0 -1 73853 1.5554041601717472e-03</internalNodes>
      <leafValues>
        -3.3460152149200439e-01 4.1992995142936707e-01</leafValues></_>
    <_>
      <internalNodes>
        0 -1 116997 -1.8959719454869628e-05</internalNodes>
      <leafValues>
        4.3089374899864197e-01 -3.0025881528854370e-01</leafValues></_>
    <_>
      <internalNodes>
        0 -1 161696 -1.6530213179066777e-04</internalNodes>
      <leafValues>
        3.9027282595634460e-01 -3.4494155645370483e-01</leafValues></_>
    <_>
      <internalNodes>
        0 -1 80470 -1.2017321751045529e-05</internalNodes>
      <leafValues>
        4.1580477356910706e-01 -3.0410829186439514e-01</leafValues></_>
    <_>
      <internalNodes>
        0 -1 139636 1.5716330381110311e-05</internalNodes>
      <leafValues>
        -2.5033110380172729e-01 4.9519383907318115e-01</leafValues></_>
    <_>
      <internalNodes>
        0 -1 84224 -7.5764721259474754e-03</internalNodes>
      <leafValues>
        5.3193086385726929e-01 -2.5091204047203064e-01</leafValues></_>
    <_>
      <internalNodes>
        0 -1 134504 -2.1668437868356705e-02</internalNodes>
      <leafValues>
        5.6559777259826660e-01 -2.0213660597801208e-01</leafValues></_></weakClassifiers></stage1>
</opencv_storage>
